FANN_FLO_2.1
num_layers=3
learning_rate=0.700000
connection_rate=1.000000
network_type=0
learning_momentum=0.000000
training_algorithm=2
train_error_function=1
train_stop_function=0
cascade_output_change_fraction=0.010000
quickprop_decay=-0.000100
quickprop_mu=1.750000
rprop_increase_factor=1.200000
rprop_decrease_factor=0.500000
rprop_delta_min=0.000000
rprop_delta_max=50.000000
rprop_delta_zero=0.100000
cascade_output_stagnation_epochs=12
cascade_candidate_change_fraction=0.010000
cascade_candidate_stagnation_epochs=12
cascade_max_out_epochs=150
cascade_min_out_epochs=50
cascade_max_cand_epochs=150
cascade_min_cand_epochs=50
cascade_num_candidate_groups=2
bit_fail_limit=3.49999999999999977796e-01
cascade_candidate_limit=1.00000000000000000000e+03
cascade_weight_multiplier=4.00000000000000022204e-01
cascade_activation_functions_count=10
cascade_activation_functions=3 5 7 8 10 11 14 15 16 17 
cascade_activation_steepnesses_count=4
cascade_activation_steepnesses=2.50000000000000000000e-01 5.00000000000000000000e-01 7.50000000000000000000e-01 1.00000000000000000000e+00 
layer_sizes=8 16 6 
scale_included=0
neurons (num_inputs, activation_function, activation_steepness)=(0, 0, 0.00000000000000000000e+00) (0, 0, 0.00000000000000000000e+00) (0, 0, 0.00000000000000000000e+00) (0, 0, 0.00000000000000000000e+00) (0, 0, 0.00000000000000000000e+00) (0, 0, 0.00000000000000000000e+00) (0, 0, 0.00000000000000000000e+00) (0, 0, 0.00000000000000000000e+00) (8, 10, 5.00000000000000000000e-01) (8, 10, 5.00000000000000000000e-01) (8, 10, 5.00000000000000000000e-01) (8, 10, 5.00000000000000000000e-01) (8, 10, 5.00000000000000000000e-01) (8, 10, 5.00000000000000000000e-01) (8, 10, 5.00000000000000000000e-01) (8, 10, 5.00000000000000000000e-01) (8, 10, 5.00000000000000000000e-01) (8, 10, 5.00000000000000000000e-01) (8, 10, 5.00000000000000000000e-01) (8, 10, 5.00000000000000000000e-01) (8, 10, 5.00000000000000000000e-01) (8, 10, 5.00000000000000000000e-01) (8, 10, 5.00000000000000000000e-01) (0, 10, 0.00000000000000000000e+00) (16, 11, 5.00000000000000000000e-01) (16, 11, 5.00000000000000000000e-01) (16, 11, 5.00000000000000000000e-01) (16, 11, 5.00000000000000000000e-01) (16, 11, 5.00000000000000000000e-01) (0, 11, 0.00000000000000000000e+00) 
connections (connected_to_neuron, weight)=(0, 1.19704106280833116216e+03) (1, -5.64136719514655851526e+02) (2, -1.37481103194956108382e+03) (3, 1.04669067577108921796e+03) (4, 4.39105546418192545843e+02) (5, 1.38857566119464354415e+03) (6, 4.86090075575416562970e+02) (7, -4.47824728830709204885e+02) (0, -5.64131836917112423180e+02) (1, 1.49997279651119197297e+03) (2, 1.50000000000000000000e+03) (3, -2.24578703664142182106e+02) (4, 1.23287157193235614727e+02) (5, -1.41523487926763868927e+03) (6, 1.54259327427755977169e+02) (7, 9.49482913410782600749e+01) (0, 1.48663966087379662895e+03) (1, 1.50000000000000000000e+03) (2, -3.47982928406182793424e+02) (3, 1.49585747254193597655e+03) (4, 1.49389813457000013841e+03) (5, 1.49510003835563929897e+03) (6, -1.35468358600395004032e+03) (7, 7.04636152567635122068e+02) (0, -1.41474748300310716331e+03) (1, -1.42981571668948981824e+03) (2, 1.49878520124537021729e+03) (3, 1.49098010853378332286e+03) (4, 3.28224844056827976146e+02) (5, 1.03169989238115317676e+03) (6, 4.12235194395881649143e+02) (7, 1.49997240345294676445e+03) (0, -1.48829291868596965287e+03) (1, -1.49886905070024454290e+03) (2, 1.50000000000000000000e+03) (3, 1.28037117885572661180e+03) (4, 5.03425688601696037949e+02) (5, -1.38132409696053127846e+03) (6, 5.94714675686812938693e+02) (7, -3.28515628949374388412e+02) (0, 7.21497670355689706412e+02) (1, -1.47315898560440314213e+03) (2, -5.27122791103470376584e+02) (3, 1.00174242051997441649e+03) (4, 2.60774812702730287128e+02) (5, -1.48654461405860820378e+03) (6, 3.49803398567804379127e+02) (7, -1.26121187140871825250e+02) (0, -1.32386688006756548930e+03) (1, -1.46478957610021507207e+03) (2, 1.02519778449774639739e+03) (3, 4.66627141788149913282e+02) (4, -1.11340340871900912134e+03) (5, -1.48995883510221347024e+03) (6, 1.48746830850261062551e+03) (7, 2.34032835395310712556e+02) (0, 1.49999992466859089291e+03) (1, -1.42942412017559308879e+03) (2, 1.50000000000000000000e+03) (3, 1.19811051094663071126e+03) (4, 2.77860417480988587613e+02) (5, 1.11358166567302737349e+03) (6, -5.11183113398484522349e+02) (7, -1.15421442187653360634e+03) (0, 1.52377582414564216151e+02) (1, 9.33520217738921701311e+02) (2, 1.50000000000000000000e+03) (3, -1.05732627298638846014e+01) (4, 1.94217064413010433555e+02) (5, -1.45065831334382437490e+03) (6, 2.44067535921945705013e+02) (7, -1.13595097515745166561e+02) (0, -1.36928245697787269819e+03) (1, -3.07855246985305768703e+02) (2, -7.47219607062123145624e+02) (3, -4.88404563435536317684e+02) (4, -1.36928245697787269819e+03) (5, -4.29308519590130003962e+02) (6, 1.49769744712834085476e+03) (7, -1.21827233521322796150e+03) (0, -1.47801018792568402205e+03) (1, -2.00767670761287348569e+02) (2, -8.28784226314391389678e+02) (3, 1.08471417843752917065e+02) (4, 4.73679822702437931525e+01) (5, 4.31569612755016180472e+02) (6, 2.51624162628771898653e+02) (7, 1.46608557848343343721e+03) (0, -1.45496703164067662328e+03) (1, 1.49695958912588525891e+03) (2, -1.44754159937826466376e+03) (3, 8.82063682115459641864e+02) (4, 4.71595546009784243324e+02) (5, -1.49992599311445042076e+03) (6, 5.58554786924945688042e+02) (7, 3.52814265122560868804e+02) (0, 1.49514011672686342536e+03) (1, 6.97126928488303292397e+02) (2, 7.78322801260101982734e+02) (3, 1.49992556413265947413e+03) (4, 1.48070712358854416379e+03) (5, 1.49600428205075286314e+03) (6, -1.35400099850333549512e+03) (7, -2.38144179609668128705e+02) (0, -1.42846782305442411598e+03) (1, -1.17731208220615462778e+03) (2, -1.18438822022962517622e+03) (3, 3.63984982786573937119e+02) (4, 3.00554594817573331511e+02) (5, -1.37270871732388400233e+03) (6, 4.19640754674364757193e+02) (7, 1.49989328869824225876e+03) (0, 1.50000000000000000000e+03) (1, 1.49855559078752889945e+03) (2, 1.49638270860401098616e+03) (3, 1.49653341775231956490e+03) (4, 1.49653341775231956490e+03) (5, 1.49653341775231956490e+03) (6, -1.37837989352056933967e+03) (7, -1.41345577945847139745e+03) (8, 2.09535024815132953080e+00) (9, -2.73560465131027275021e+00) (10, -6.48565917836561367515e-01) (11, 1.67826360921692474548e+00) (12, -2.53834828839927650890e+00) (13, -1.15096358134643056426e-01) (14, -7.14803863141295514616e-01) (15, -1.23679108044362306984e+00) (16, 6.59575105629590652256e-02) (17, -1.21912008463405732717e-03) (18, 7.28202413440684259704e-01) (19, 9.65948341958622336278e-01) (20, 6.80589569311006781227e-01) (21, -7.25991398432097034821e-01) (22, 1.38139730585601139268e+00) (23, 7.45230917995955532973e-01) (8, 3.37497078213815342451e+01) (9, 1.51777783043530600793e+01) (10, 1.56857334465487352482e+00) (11, 2.28600362632924741790e-01) (12, -4.05103284464086641492e+01) (13, -1.05671174213510865592e+00) (14, 1.69107796004737909179e+00) (15, 1.47382506281537950521e+00) (16, -2.20047999603377277822e+01) (17, -5.05214225861179366817e-01) (18, -1.08529039061943990419e+01) (19, -6.86931848275034262485e+00) (20, 2.58663088548788770993e+01) (21, -9.23108114753413744324e+00) (22, 1.39151332299083261290e+01) (23, -1.17689905621419610426e+00) (8, 5.55119592230526523458e-02) (9, -2.17948269594449772768e+00) (10, 6.71766986677135413686e-01) (11, 1.98229408738781609500e+00) (12, 1.17663265803561567502e+00) (13, -2.95494195736532683227e+00) (14, -3.42988614327678187355e-01) (15, -2.16085569898152501933e-01) (16, 1.47100140803773005160e+00) (17, 4.86065670108333569566e-01) (18, -5.37147647813404516270e-01) (19, 2.90456029768029200255e-02) (20, 1.19407318083889213423e-01) (21, 7.72737825997537264300e-01) (22, -2.50152295475478458897e-01) (23, -1.42925448194162169058e-01) (8, -9.71016374095895584695e-01) (9, -2.43987817753193086956e-01) (10, -3.28986691891840798974e+00) (11, 1.71136925320505040027e+00) (12, 3.73163672549645220045e+00) (13, -1.62084870020954951997e-01) (14, -4.11566306000701875867e-01) (15, -2.35853352617291012194e+00) (16, -4.62983498887538369448e-01) (17, -3.42851914866989737618e-01) (18, 9.81784399236111049447e-01) (19, -2.97423220444698377385e-01) (20, -1.88634751267824607446e+00) (21, -4.55801729506159603034e+00) (22, 1.07640253523395346136e-01) (23, 7.72595301421348601423e+00) (8, -5.43615668188930811766e-01) (9, 3.05490860850285184114e+00) (10, 2.07235023810416540968e+00) (11, -4.22258200001564532045e+00) (12, -8.11646071281603265213e-01) (13, 5.61509663725054775085e+00) (14, 6.88853802991460595351e-01) (15, 5.78468269049576733210e+00) (16, 3.66660617218543283258e+00) (17, 1.86390470734223612226e+00) (18, 2.79768444280422690085e+00) (19, -5.72191782302521739778e-02) (20, -5.27517137591563489707e+00) (21, 2.10266791672271002867e+00) (22, 8.87778447517775570752e-01) (23, -3.15693637074930988362e+00) 
